network "BayesNet12818" {
}

variable "Mg" {
	type continuous;
}

variable "RI" {
	type continuous;
}

variable "Ba" {
	type continuous;
}

variable "Fe" {
	type continuous;
}

variable "variable270" {
	type discrete[3] { "state0" "state1" "state2" };
}

variable "Al" {
	type continuous;
}

variable "K" {
	type continuous;
}

variable "Na" {
	type continuous;
}

variable "Si" {
	type continuous;
}

variable "Ca" {
	type continuous;
}

variable "variable349" {
	type discrete[5] { "state0" "state1" "state2" "state3" "state4" };
}

variable "variable354" {
	type discrete[5] { "state0" "state1" "state2" "state3" "state4" };
}

probability ("Mg" | "variable270") {
	("state0") 0.026788378692033717 0.10354091197921209;
	("state1") 3.5349641260877567 0.10354091197921209;
	("state2") 2.0048776489129434 0.19640688011123836;
}

probability ("RI", "Ba", "Fe" | "variable349") {
	("state0") 1.5170404818085395 1.15544788551755 1.710102124125285E-48 5.190567365077441E-6 2.3744497395260464E-4 0.0 2.3744497395260464E-4 0.44024562521282756 0.0 0.0 0.0 4.589722691938176E-7;
	("state1") 1.5185712423337319 0.14395679170523196 0.2522215828254981 2.5080787077590357E-6 1.0570771769833674E-4 6.221184445995229E-5 1.0570771769833674E-4 0.005578989737595901 0.003127338853234458 6.221184445995229E-5 0.003127338853234458 0.012138342960160978;
	("state2") 1.5183302701077743 0.0 0.0 7.62043850826002E-6 0.0 0.0 0.0 4.589722691938176E-7 0.0 0.0 0.0 4.589722691938176E-7;
	("state3") 1.5183602745573164 1.2526656611033955 0.09567896758848367 2.8019821870625966E-5 0.004275706963051574 4.0449583730374803E-4 0.004275706963051574 0.7892555313749846 0.058837425089110426 4.0449583730374803E-4 0.058837425089110426 0.006339815733626854;
	("state4") 1.518981509545563 0.0 0.17393769683095162 1.1569593750840444E-5 0.0 -1.1194352697729419E-5 0.0 4.589722691938176E-7 0.0 -1.1194352697729417E-5 0.0 0.00675464956098917;
}

probability ("variable270" | "variable354") {
	("state0") 2.0774034163817796E-256 1.0 1.269631139000264E-18;
	("state1") 0.7958027462159672 8.790931819607265E-49 0.2041972537840328;
	("state2") 0.6089197775577093 3.630406292960134E-21 0.39108022244229074;
	("state3") 7.169789328946332E-129 1.0 1.2147661589408301E-28;
	("state4") 0.48869189858956763 0.38103913127954375 0.13026897013088862;
}

probability ("Al", "K" | "variable354") {
	("state0") 1.3806467634197284 0.5879573518590927 0.03721083067527222 0.002620847460181163 0.002620847460181164 0.012682175558688039;
	("state1") 2.1211189288420482 0.014942136029874134 0.17099522989207905 0.007498848988379082 0.007498848988379081 0.012759847671939672;
	("state2") 1.3636189080605363 0.35574526789197936 0.2503644183341491 0.11841393256639346 0.11841393256639346 0.07466463379695709;
	("state3") 0.8937222642546537 0.12028581005591157 0.09719523690591843 0.0034609252077043608 0.00346092520770436 0.01254653500474427;
	("state4") 2.3285274249143106 2.7668016205129358 0.5225376611119493 0.6738786673826217 0.6738786673826217 4.041397819057038;
}

probability ("Na", "Si", "Ca" | "variable354") {
	("state0") 13.094744417625952 72.79817846503231 8.408823462267442 0.12036916883696161 -0.08650219183286753 -0.02982198704134351 -0.08650219183286753 0.14076899458362413 -0.01850878008990079 -0.029821987041343513 -0.018508780089900787 0.11792280010104819;
	("state1") 14.496618191645556 73.1334315315226 8.917782273248061 0.15156551133649798 0.026620149670031953 -0.09709853912435273 0.026620149670031953 0.19224377759077693 -0.19228788987057618 -0.09709853912435273 -0.19228788987057618 0.38219664355315713;
	("state2") 13.157446706922489 72.49875939856953 11.46825592504547 2.1241806602783533 0.2148088265849981 -2.0314160411211195 0.2148088265849981 1.6524157026546178 -0.8518461096129745 -2.0314160411211195 -0.8518461096129745 4.216370186754844;
	("state3") 13.785043273041028 71.95247813596256 9.40693926920322 0.2127511505734595 -0.11483782116739488 -0.10283612612252384 -0.11483782116739488 0.31693298405494347 -0.24935362860905466 -0.10283612612252384 -0.24935362860905466 0.6082044475661523;
	("state4") 13.563684295373422 71.94896840228523 6.712643526922561 0.6422683073988509 -0.5087551019624194 -0.6330228274501953 -0.5087551019624194 2.5275626351067273 0.964828673077892 -0.6330228274501953 0.964828673077892 1.0688503512766792;
}

probability ("variable349" | "variable270") {
	("state0") 0.36326297698798854 2.618779778731799E-172 0.3639759820629902 0.15897926526434203 0.11378177568467919;
	("state1") 0.032329736014537515 0.033316282279170835 0.617771384864223 3.1861388827437237E-161 0.3165825968420686;
	("state2") 0.16898533316429332 0.11143568695734313 0.5574052759333856 7.067384744517458E-108 0.162173703944978;
}

probability ("variable354") {
	table 0.5532500720389748 0.13452043754471585 0.1315157011033886 0.1424615289028121 0.03825226041010857;
}



